{"name": "tree", "version": "v3", "num_class": 3, "num_tree_per_iteration": 3, "label_index": 0, "max_feature_idx": 3, "objective": "multiclass num_class:3", "average_output": false, "feature_names": ["Column_0", "Column_1", "Column_2", "Column_3"], "monotone_constraints": [], "feature_infos": {"Column_0": {"min_value": 4.3, "max_value": 7.7, "values": []}, "Column_1": {"min_value": 2, "max_value": 4.4, "values": []}, "Column_2": {"min_value": 1, "max_value": 6.7, "values": []}, "Column_3": {"min_value": 0.1, "max_value": 2.5, "values": []}}, "tree_info": [{"tree_index": 0, "num_leaves": 3, "num_cat": 0, "shrinkage": 1, "tree_structure": {"split_index": 0, "split_feature": 2, "split_gain": 63.10960006713867, "threshold": 2.4500000000000006, "decision_type": "<=", "default_left": true, "missing_type": "None", "internal_value": -1.07392, "internal_weight": 0, "internal_count": 99, "left_child": {"leaf_index": 0, "leaf_value": -0.09830991782577625, "leaf_weight": 10.459271252155302, "leaf_count": 31}, "right_child": {"split_index": 1, "split_feature": 1, "split_gain": 3.552710078910475e-15, "threshold": 2.85, "decision_type": "<=", "default_left": true, "missing_type": "None", "internal_value": -1.58025, "internal_weight": 22.9429, "internal_count": 68, "left_child": {"leaf_index": 1, "leaf_value": -1.5802487726711334, "leaf_weight": 10.459271252155306, "leaf_count": 31}, "right_child": {"leaf_index": 2, "leaf_value": -1.5802487726711334, "leaf_weight": 12.483646333217619, "leaf_count": 37}}}}, {"tree_index": 1, "num_leaves": 3, "num_cat": 0, "shrinkage": 1, "tree_structure": {"split_index": 0, "split_feature": 1, "split_gain": 19.044300079345703, "threshold": 2.9500000000000006, "decision_type": "<=", "default_left": true, "missing_type": "None", "internal_value": -1.04982, "internal_weight": 0, "internal_count": 99, "left_child": {"leaf_index": 0, "leaf_value": -0.6234109510938928, "leaf_weight": 13.308750092983244, "leaf_count": 39}, "right_child": {"split_index": 1, "split_feature": 0, "split_gain": 2.393160104751587, "threshold": 5.550000000000001, "decision_type": "<=", "default_left": true, "missing_type": "None", "internal_value": -1.3917, "internal_weight": 20.475, "internal_count": 60, "left_child": {"leaf_index": 1, "leaf_value": -1.5626426250030248, "leaf_weight": 10.237500071525576, "leaf_count": 30}, "right_child": {"leaf_index": 2, "leaf_value": -1.2207622957001008, "leaf_weight": 10.237500071525572, "leaf_count": 30}}}}, {"tree_index": 2, "num_leaves": 3, "num_cat": 0, "shrinkage": 1, "tree_structure": {"split_index": 0, "split_feature": 3, "split_gain": 62.52090072631836, "threshold": 1.6500000000000001, "decision_type": "<=", "default_left": true, "missing_type": "None", "internal_value": -1.17657, "internal_weight": 0, "internal_count": 99, "left_child": {"split_index": 1, "split_feature": 0, "split_gain": 0.4298270046710968, "threshold": 5.750000000000001, "decision_type": "<=", "default_left": true, "missing_type": "None", "internal_value": -1.6096599999999999, "internal_weight": 20.4733, "internal_count": 64, "left_child": {"leaf_index": 0, "leaf_value": -1.6585015465933985, "leaf_weight": 14.075416684150701, "leaf_count": 44}, "right_child": {"leaf_index": 2, "leaf_value": -1.5022006675951052, "leaf_weight": 6.397916674613952, "leaf_count": 20}}, "right_child": {"leaf_index": 1, "leaf_value": -0.14015015060997582, "leaf_weight": 11.196354180574415, "leaf_count": 35}}}, {"tree_index": 3, "num_leaves": 3, "num_cat": 0, "shrinkage": 0.495, "tree_structure": {"split_index": 0, "split_feature": 2, "split_gain": 19.446199417114258, "threshold": 2.4500000000000006, "decision_type": "<=", "default_left": true, "missing_type": "None", "internal_value": 0, "internal_weight": 0, "internal_count": 99, "left_child": {"leaf_index": 0, "leaf_value": 0.48007338220094947, "leaf_weight": 9.930241703987123, "leaf_count": 31}, "right_child": {"split_index": 1, "split_feature": 3, "split_gain": 0.03004170022904873, "threshold": 1.6500000000000001, "decision_type": "<=", "default_left": true, "missing_type": "None", "internal_value": -0.411155, "internal_weight": 15.1522, "internal_count": 68, "left_child": {"leaf_index": 1, "leaf_value": -0.43009634800456087, "leaf_weight": 8.71564620733261, "leaf_count": 33}, "right_child": {"leaf_index": 2, "leaf_value": -0.3855073055693781, "leaf_weight": 6.436601057648658, "leaf_count": 35}}}}, {"tree_index": 4, "num_leaves": 3, "num_cat": 0, "shrinkage": 0.495, "tree_structure": {"split_index": 0, "split_feature": 3, "split_gain": 9.875749588012695, "threshold": 1.6500000000000001, "decision_type": "<=", "default_left": true, "missing_type": "None", "internal_value": 0, "internal_weight": 0, "internal_count": 99, "left_child": {"split_index": 1, "split_feature": 2, "split_gain": 15.121199607849121, "threshold": 2.4500000000000006, "decision_type": "<=", "default_left": true, "missing_type": "None", "internal_value": 0.218, "internal_weight": 18.524, "internal_count": 64, "left_child": {"leaf_index": 0, "leaf_value": -0.39814265675850274, "leaf_weight": 6.391937226057059, "leaf_count": 31}, "right_child": {"leaf_index": 2, "leaf_value": 0.5426238726939535, "leaf_weight": 12.132045179605482, "leaf_count": 33}}, "right_child": {"leaf_index": 1, "leaf_value": -0.39757244530526703, "leaf_weight": 9.745540499687193, "leaf_count": 35}}}, {"tree_index": 5, "num_leaves": 3, "num_cat": 0, "shrinkage": 0.495, "tree_structure": {"split_index": 0, "split_feature": 2, "split_gain": 21.045900344848633, "threshold": 4.750000000000001, "decision_type": "<=", "default_left": true, "missing_type": "None", "internal_value": 0, "internal_weight": 0, "internal_count": 99, "left_child": {"split_index": 1, "split_feature": 0, "split_gain": 0.16707199811935425, "threshold": 5.050000000000001, "decision_type": "<=", "default_left": true, "missing_type": "None", "internal_value": -0.38542, "internal_weight": 13.6156, "internal_count": 60, "left_child": {"leaf_index": 0, "leaf_value": -0.3105123601934914, "leaf_weight": 4.7502621114254024, "leaf_count": 24}, "right_child": {"leaf_index": 2, "leaf_value": -0.42555775770366094, "leaf_weight": 8.865361541509627, "leaf_count": 36}}, "right_child": {"leaf_index": 1, "leaf_value": 0.48827848899648685, "leaf_weight": 13.407803297042845, "leaf_count": 39}}}, {"tree_index": 6, "num_leaves": 3, "num_cat": 0, "shrinkage": 0.49005, "tree_structure": {"split_index": 0, "split_feature": 2, "split_gain": 8.815400123596191, "threshold": 2.4500000000000006, "decision_type": "<=", "default_left": true, "missing_type": "None", "internal_value": 0, "internal_weight": 0, "internal_count": 99, "left_child": {"leaf_index": 0, "leaf_value": 0.39039027870929555, "leaf_weight": 6.276150137186051, "leaf_count": 31}, "right_child": {"split_index": 1, "split_feature": 2, "split_gain": 0.0037398000713437796, "threshold": 4.750000000000001, "decision_type": "<=", "default_left": true, "missing_type": "None", "internal_value": -0.365736, "internal_weight": 9.03097, "internal_count": 68, "left_child": {"leaf_index": 1, "leaf_value": -0.3752453044320222, "leaf_weight": 4.729972720146177, "leaf_count": 29}, "right_child": {"leaf_index": 2, "leaf_value": -0.3552780769055407, "leaf_weight": 4.3009936064481735, "leaf_count": 39}}}}, {"tree_index": 7, "num_leaves": 3, "num_cat": 0, "shrinkage": 0.49005, "tree_structure": {"split_index": 0, "split_feature": 2, "split_gain": 4.548279762268066, "threshold": 5.050000000000001, "decision_type": "<=", "default_left": true, "missing_type": "None", "internal_value": 0, "internal_weight": 0, "internal_count": 99, "left_child": {"split_index": 1, "split_feature": 0, "split_gain": 4.241569995880127, "threshold": 5.450000000000001, "decision_type": "<=", "default_left": true, "missing_type": "None", "internal_value": 0.161269, "internal_weight": 13.6497, "internal_count": 68, "left_child": {"leaf_index": 0, "leaf_value": -0.20165830213635247, "leaf_weight": 4.936527162790301, "leaf_count": 36}, "right_child": {"leaf_index": 2, "leaf_value": 0.36688861170033926, "leaf_weight": 8.713171541690825, "leaf_count": 32}}, "right_child": {"leaf_index": 1, "leaf_value": -0.36088150344415304, "leaf_weight": 5.670565754175185, "leaf_count": 31}}}, {"tree_index": 8, "num_leaves": 4, "num_cat": 0, "shrinkage": 0.49005, "tree_structure": {"split_index": 0, "split_feature": 2, "split_gain": 8.672060012817383, "threshold": 4.8500000000000005, "decision_type": "<=", "default_left": true, "missing_type": "None", "internal_value": 0, "internal_weight": 0, "internal_count": 99, "left_child": {"split_index": 1, "split_feature": 2, "split_gain": 0.18895600736141205, "threshold": 4.250000000000001, "decision_type": "<=", "default_left": true, "missing_type": "None", "internal_value": -0.309952, "internal_weight": 8.84983, "internal_count": 62, "left_child": {"split_index": 2, "split_feature": 2, "split_gain": 0.0019637199584394693, "threshold": 2.4500000000000006, "decision_type": "<=", "default_left": true, "missing_type": "None", "internal_value": -0.361893, "internal_weight": 5.79877, "internal_count": 47, "left_child": {"leaf_index": 0, "leaf_value": -0.35406734543740276, "leaf_weight": 3.3079049512743968, "leaf_count": 31}, "right_child": {"leaf_index": 3, "leaf_value": -0.3722851864381903, "leaf_weight": 2.490861088037491, "leaf_count": 16}}, "right_child": {"leaf_index": 2, "leaf_value": -0.21123391670387434, "leaf_weight": 3.0510648638010025, "leaf_count": 15}}, "right_child": {"leaf_index": 1, "leaf_value": 0.3659068638049207, "leaf_weight": 9.403899684548376, "leaf_count": 37}}}, {"tree_index": 9, "num_leaves": 3, "num_cat": 0, "shrinkage": 0.48515, "tree_structure": {"split_index": 0, "split_feature": 2, "split_gain": 4.720379829406738, "threshold": 2.4500000000000006, "decision_type": "<=", "default_left": true, "missing_type": "None", "internal_value": 0, "internal_weight": 0, "internal_count": 99, "left_child": {"leaf_index": 0, "leaf_value": 0.35614288243410164, "leaf_weight": 3.8148307353258133, "leaf_count": 31}, "right_child": {"split_index": 1, "split_feature": 2, "split_gain": 0.0008801550138741732, "threshold": 4.750000000000001, "decision_type": "<=", "default_left": true, "missing_type": "None", "internal_value": -0.345886, "internal_weight": 5.511, "internal_count": 68, "left_child": {"leaf_index": 1, "leaf_value": -0.3514856720689021, "leaf_weight": 3.0048268511891365, "leaf_count": 29}, "right_child": {"leaf_index": 2, "leaf_value": -0.3391729163685384, "leaf_weight": 2.506168682128191, "leaf_count": 39}}}}, {"tree_index": 10, "num_leaves": 3, "num_cat": 0, "shrinkage": 0.48515, "tree_structure": {"split_index": 0, "split_feature": 3, "split_gain": 1.9180999994277954, "threshold": 1.6500000000000001, "decision_type": "<=", "default_left": true, "missing_type": "None", "internal_value": 0, "internal_weight": 0, "internal_count": 99, "left_child": {"split_index": 1, "split_feature": 2, "split_gain": 1.6177799701690674, "threshold": 3.4000000000000004, "decision_type": "<=", "default_left": true, "missing_type": "None", "internal_value": 0.136447, "internal_weight": 9.34103, "internal_count": 64, "left_child": {"leaf_index": 0, "leaf_value": -0.161530665855771, "leaf_weight": 2.939125090837477, "leaf_count": 34}, "right_child": {"leaf_index": 2, "leaf_value": 0.2732493978758043, "leaf_weight": 6.401906117796898, "leaf_count": 30}}, "right_child": {"leaf_index": 1, "leaf_value": -0.2562878962308403, "leaf_weight": 4.262710563838483, "leaf_count": 35}}}, {"tree_index": 11, "num_leaves": 4, "num_cat": 0, "shrinkage": 0.48515, "tree_structure": {"split_index": 0, "split_feature": 3, "split_gain": 3.822499990463257, "threshold": 1.6500000000000001, "decision_type": "<=", "default_left": true, "missing_type": "None", "internal_value": 0, "internal_weight": 0, "internal_count": 99, "left_child": {"split_index": 1, "split_feature": 2, "split_gain": 0.8183479905128479, "threshold": 4.550000000000001, "decision_type": "<=", "default_left": true, "missing_type": "None", "internal_value": -0.23057, "internal_weight": 6.43172, "internal_count": 64, "left_child": {"split_index": 2, "split_feature": 2, "split_gain": 0.001380800036713481, "threshold": 2.4500000000000006, "decision_type": "<=", "default_left": true, "missing_type": "None", "internal_value": -0.347323, "internal_weight": 4.4199, "internal_count": 55, "left_child": {"leaf_index": 0, "leaf_value": -0.33684851871983895, "leaf_weight": 1.7736102342605589, "leaf_count": 31}, "right_child": {"leaf_index": 3, "leaf_value": -0.35434292589046157, "leaf_weight": 2.6462915539741516, "leaf_count": 24}}, "right_child": {"leaf_index": 2, "leaf_value": 0.02593417237317251, "leaf_weight": 2.0118137672543526, "leaf_count": 9}}, "right_child": {"leaf_index": 1, "leaf_value": 0.3075649272908039, "leaf_weight": 6.009899199008942, "leaf_count": 35}}}, {"tree_index": 12, "num_leaves": 3, "num_cat": 0, "shrinkage": 0.480298, "tree_structure": {"split_index": 0, "split_feature": 2, "split_gain": 2.670409917831421, "threshold": 2.4500000000000006, "decision_type": "<=", "default_left": true, "missing_type": "None", "internal_value": 0, "internal_weight": 0, "internal_count": 99, "left_child": {"leaf_index": 0, "leaf_value": 0.33822569322834994, "leaf_weight": 2.296355664730072, "leaf_count": 31}, "right_child": {"split_index": 1, "split_feature": 2, "split_gain": 0.00028999499045312405, "threshold": 4.750000000000001, "decision_type": "<=", "default_left": true, "missing_type": "None", "internal_value": -0.33408, "internal_weight": 3.35286, "internal_count": 68, "left_child": {"leaf_index": 1, "leaf_value": -0.3379626505827523, "leaf_weight": 1.9100265316665175, "leaf_count": 29}, "right_child": {"leaf_index": 2, "leaf_value": -0.3289409974542445, "leaf_weight": 1.4428299143910406, "leaf_count": 39}}}}, {"tree_index": 13, "num_leaves": 4, "num_cat": 0, "shrinkage": 0.480298, "tree_structure": {"split_index": 0, "split_feature": 2, "split_gain": 1.2442400455474854, "threshold": 5.050000000000001, "decision_type": "<=", "default_left": true, "missing_type": "None", "internal_value": 0, "internal_weight": 0, "internal_count": 99, "left_child": {"split_index": 1, "split_feature": 0, "split_gain": 1.7395299673080444, "threshold": 6.050000000000001, "decision_type": "<=", "default_left": true, "missing_type": "None", "internal_value": 0.122093, "internal_weight": 6.83825, "internal_count": 68, "left_child": {"split_index": 2, "split_feature": 1, "split_gain": 0.18988899886608124, "threshold": 2.9500000000000006, "decision_type": "<=", "default_left": true, "missing_type": "None", "internal_value": -0.0462204, "internal_weight": 4.6118500000000004, "internal_count": 53, "left_child": {"leaf_index": 0, "leaf_value": 0.03746728008171973, "leaf_weight": 2.6545233577489853, "leaf_count": 19}, "right_child": {"leaf_index": 3, "leaf_value": -0.15971747209254616, "leaf_weight": 1.9573279619216917, "leaf_count": 34}}, "right_child": {"leaf_index": 2, "leaf_value": 0.47074363577393985, "leaf_weight": 2.226397678256035, "leaf_count": 15}}, "right_child": {"leaf_index": 1, "leaf_value": -0.2712561874811901, "leaf_weight": 2.545734103769064, "leaf_count": 31}}}, {"tree_index": 14, "num_leaves": 5, "num_cat": 0, "shrinkage": 0.480298, "tree_structure": {"split_index": 0, "split_feature": 2, "split_gain": 2.3493800163269043, "threshold": 5.150000000000001, "decision_type": "<=", "default_left": true, "missing_type": "None", "internal_value": 0, "internal_weight": 0, "internal_count": 99, "left_child": {"split_index": 1, "split_feature": 3, "split_gain": 0.9520890116691589, "threshold": 1.4500000000000002, "decision_type": "<=", "default_left": true, "missing_type": "None", "internal_value": -0.141655, "internal_weight": 5.85527, "internal_count": 75, "left_child": {"split_index": 2, "split_feature": 0, "split_gain": 0.0005983100272715092, "threshold": 5.750000000000001, "decision_type": "<=", "default_left": true, "missing_type": "None", "internal_value": -0.338433, "internal_weight": 2.8811299999999997, "internal_count": 56, "left_child": {"split_index": 3, "split_feature": 2, "split_gain": 0.0003230239963158965, "threshold": 2.4500000000000006, "decision_type": "<=", "default_left": true, "missing_type": "None", "internal_value": -0.333168, "internal_weight": 1.8252199999999998, "internal_count": 44, "left_child": {"leaf_index": 0, "leaf_value": -0.32698523434125076, "leaf_weight": 0.9425964280962946, "leaf_count": 31}, "right_child": {"leaf_index": 4, "leaf_value": -0.3397712391963674, "leaf_weight": 0.882624126970768, "leaf_count": 13}}, "right_child": {"leaf_index": 3, "leaf_value": -0.34753246153722306, "leaf_weight": 1.055910814553499, "leaf_count": 12}}, "right_child": {"leaf_index": 2, "leaf_value": 0.04896855100993305, "leaf_weight": 2.9741393141448498, "leaf_count": 19}}, "right_child": {"leaf_index": 1, "leaf_value": 0.41734230743753753, "leaf_weight": 2.4644320607185364, "leaf_count": 24}}}, {"tree_index": 15, "num_leaves": 4, "num_cat": 0, "shrinkage": 0.475495, "tree_structure": {"split_index": 0, "split_feature": 2, "split_gain": 1.7017799615859985, "threshold": 2.4500000000000006, "decision_type": "<=", "default_left": true, "missing_type": "None", "internal_value": 0, "internal_weight": 0, "internal_count": 96, "left_child": {"leaf_index": 0, "leaf_value": 0.32882341025501, "leaf_weight": 1.5332241877913477, "leaf_count": 32}, "right_child": {"split_index": 1, "split_feature": 0, "split_gain": 0.00030359000083990395, "threshold": 5.650000000000001, "decision_type": "<=", "default_left": true, "missing_type": "None", "internal_value": -0.328155, "internal_weight": 2.12967, "internal_count": 64, "left_child": {"leaf_index": 1, "leaf_value": -0.33536226878667813, "leaf_weight": 0.8154560811817649, "leaf_count": 13}, "right_child": {"split_index": 2, "split_feature": 2, "split_gain": 1.8690900105866604e-05, "threshold": 4.8500000000000005, "decision_type": "<=", "default_left": true, "missing_type": "None", "internal_value": -0.323683, "internal_weight": 1.31422, "internal_count": 51, "left_child": {"leaf_index": 2, "leaf_value": -0.32547661999257343, "leaf_weight": 0.6569872219115493, "leaf_count": 19}, "right_child": {"leaf_index": 3, "leaf_value": -0.32189022752715724, "leaf_weight": 0.6572293769568205, "leaf_count": 32}}}}}, {"tree_index": 16, "num_leaves": 3, "num_cat": 0, "shrinkage": 0.475495, "tree_structure": {"split_index": 0, "split_feature": 1, "split_gain": 1.2437299489974976, "threshold": 2.85, "decision_type": "<=", "default_left": true, "missing_type": "None", "internal_value": 0, "internal_weight": 0, "internal_count": 96, "left_child": {"leaf_index": 0, "leaf_value": -0.151840891249799, "leaf_weight": 3.3227495700120926, "leaf_count": 27}, "right_child": {"split_index": 1, "split_feature": 2, "split_gain": 1.6864099502563477, "threshold": 4.050000000000001, "decision_type": "<=", "default_left": true, "missing_type": "None", "internal_value": 0.241737, "internal_weight": 4.00147, "internal_count": 69, "left_child": {"leaf_index": 1, "leaf_value": -0.2822393919221308, "leaf_weight": 1.0309622101485727, "leaf_count": 32}, "right_child": {"leaf_index": 2, "leaf_value": 0.42359183984715326, "leaf_weight": 2.9705044887959957, "leaf_count": 37}}}}, {"tree_index": 17, "num_leaves": 5, "num_cat": 0, "shrinkage": 0.475495, "tree_structure": {"split_index": 0, "split_feature": 1, "split_gain": 2.3400800228118896, "threshold": 2.85, "decision_type": "<=", "default_left": true, "missing_type": "None", "internal_value": 0, "internal_weight": 0, "internal_count": 96, "left_child": {"leaf_index": 0, "leaf_value": 0.27443512510395823, "leaf_weight": 2.8449709117412567, "leaf_count": 27}, "right_child": {"split_index": 1, "split_feature": 2, "split_gain": 2.2613799571990967, "threshold": 5.050000000000001, "decision_type": "<=", "default_left": true, "missing_type": "None", "internal_value": -0.311181, "internal_weight": 3.37049, "internal_count": 69, "left_child": {"split_index": 2, "split_feature": 2, "split_gain": 0.6127769947052002, "threshold": 4.550000000000001, "decision_type": "<=", "default_left": true, "missing_type": "None", "internal_value": -0.548447, "internal_weight": 2.45822, "internal_count": 50, "left_child": {"split_index": 3, "split_feature": 2, "split_gain": 0.001077990047633648, "threshold": 4.250000000000001, "decision_type": "<=", "default_left": true, "missing_type": "None", "internal_value": -0.336621, "internal_weight": 1.36862, "internal_count": 43, "left_child": {"leaf_index": 1, "leaf_value": -0.3221709908531813, "leaf_weight": 0.6299689747393138, "leaf_count": 34}, "right_child": {"leaf_index": 4, "leaf_value": -0.34894515230796674, "leaf_weight": 0.7386491112411022, "leaf_count": 9}}, "right_child": {"leaf_index": 3, "leaf_value": -0.8145156770747682, "leaf_weight": 1.0896046906709669, "leaf_count": 7}}, "right_child": {"leaf_index": 2, "leaf_value": 0.32816571040356285, "leaf_weight": 0.912266969680786, "leaf_count": 19}}}}, {"tree_index": 18, "num_leaves": 4, "num_cat": 0, "shrinkage": 0.47074, "tree_structure": {"split_index": 0, "split_feature": 2, "split_gain": 1.0035899877548218, "threshold": 2.4500000000000006, "decision_type": "<=", "default_left": true, "missing_type": "None", "internal_value": 0, "internal_weight": 0, "internal_count": 96, "left_child": {"leaf_index": 0, "leaf_value": 0.32044832421826747, "leaf_weight": 0.8616133369505409, "leaf_count": 32}, "right_child": {"split_index": 1, "split_feature": 0, "split_gain": 7.169099990278482e-05, "threshold": 5.650000000000001, "decision_type": "<=", "default_left": true, "missing_type": "None", "internal_value": -0.321515, "internal_weight": 1.44405, "internal_count": 64, "left_child": {"leaf_index": 1, "leaf_value": -0.3255357823321589, "leaf_weight": 0.5846688803285358, "leaf_count": 13}, "right_child": {"split_index": 2, "split_feature": 0, "split_gain": 1.2638200132641941e-05, "threshold": 6.150000000000001, "decision_type": "<=", "default_left": true, "missing_type": "None", "internal_value": -0.318779, "internal_weight": 0.859378, "internal_count": 51, "left_child": {"leaf_index": 2, "leaf_value": -0.32057449216032713, "leaf_weight": 0.431948434561491, "leaf_count": 17}, "right_child": {"leaf_index": 3, "leaf_value": -0.31696399115793605, "leaf_weight": 0.4274291377514601, "leaf_count": 34}}}}}, {"tree_index": 19, "num_leaves": 3, "num_cat": 0, "shrinkage": 0.47074, "tree_structure": {"split_index": 0, "split_feature": 2, "split_gain": 0.7736650109291077, "threshold": 4.8500000000000005, "decision_type": "<=", "default_left": true, "missing_type": "None", "internal_value": 0, "internal_weight": 0, "internal_count": 96, "left_child": {"split_index": 1, "split_feature": 0, "split_gain": 0.19941900670528412, "threshold": 5.250000000000001, "decision_type": "<=", "default_left": true, "missing_type": "None", "internal_value": 0.163085, "internal_weight": 3.96792, "internal_count": 64, "left_child": {"leaf_index": 0, "leaf_value": 0.007079427922483688, "leaf_weight": 1.2456909213215115, "leaf_count": 30}, "right_child": {"leaf_index": 2, "leaf_value": 0.23447317590660663, "leaf_weight": 2.722227592021227, "leaf_count": 34}}, "right_child": {"leaf_index": 1, "leaf_value": -0.16248913039684493, "leaf_weight": 2.7303182743489742, "leaf_count": 32}}}, {"tree_index": 20, "num_leaves": 4, "num_cat": 0, "shrinkage": 0.47074, "tree_structure": {"split_index": 0, "split_feature": 0, "split_gain": 1.184340000152588, "threshold": 5.950000000000001, "decision_type": "<=", "default_left": true, "missing_type": "None", "internal_value": 0, "internal_weight": 0, "internal_count": 96, "left_child": {"split_index": 2, "split_feature": 1, "split_gain": 0.4011150002479553, "threshold": 2.9500000000000006, "decision_type": "<=", "default_left": true, "missing_type": "None", "internal_value": -0.297371, "internal_weight": 2.00126, "internal_count": 52, "left_child": {"leaf_index": 0, "leaf_value": -0.11589679533468691, "leaf_weight": 1.149170504882932, "leaf_count": 16}, "right_child": {"leaf_index": 3, "leaf_value": -0.5421153358061946, "leaf_weight": 0.8520903782919048, "leaf_count": 36}}, "right_child": {"split_index": 1, "split_feature": 0, "split_gain": 1.2619099617004395, "threshold": 6.250000000000001, "decision_type": "<=", "default_left": true, "missing_type": "None", "internal_value": 0.147483, "internal_weight": 3.93155, "internal_count": 44, "left_child": {"leaf_index": 1, "leaf_value": 0.4257434696089542, "leaf_weight": 1.8823657464236023, "leaf_count": 13}, "right_child": {"leaf_index": 2, "leaf_value": -0.10812607644037463, "leaf_weight": 2.0491832606494427, "leaf_count": 31}}}}, {"tree_index": 21, "num_leaves": 4, "num_cat": 0, "shrinkage": 0.466033, "tree_structure": {"split_index": 0, "split_feature": 2, "split_gain": 0.6758210062980652, "threshold": 2.4500000000000006, "decision_type": "<=", "default_left": true, "missing_type": "None", "internal_value": 0, "internal_weight": 0, "internal_count": 96, "left_child": {"leaf_index": 0, "leaf_value": 0.3154671115645984, "leaf_weight": 0.587035283446312, "leaf_count": 32}, "right_child": {"split_index": 1, "split_feature": 0, "split_gain": 2.9437100238283165e-05, "threshold": 5.550000000000001, "decision_type": "<=", "default_left": true, "missing_type": "None", "internal_value": -0.315886, "internal_weight": 0.987931, "internal_count": 64, "left_child": {"leaf_index": 1, "leaf_value": -0.3196233312949919, "leaf_weight": 0.31280533969402313, "leaf_count": 9}, "right_child": {"split_index": 2, "split_feature": 0, "split_gain": 4.9557302190805785e-06, "threshold": 6.050000000000001, "decision_type": "<=", "default_left": true, "missing_type": "None", "internal_value": -0.314154, "internal_weight": 0.675125, "internal_count": 55, "left_child": {"leaf_index": 2, "leaf_value": -0.31556823491143654, "leaf_weight": 0.2995588118210435, "leaf_count": 16}, "right_child": {"leaf_index": 3, "leaf_value": -0.3130268076087372, "leaf_weight": 0.37556668277829885, "leaf_count": 39}}}}}, {"tree_index": 22, "num_leaves": 4, "num_cat": 0, "shrinkage": 0.466033, "tree_structure": {"split_index": 0, "split_feature": 2, "split_gain": 0.40588200092315674, "threshold": 4.950000000000001, "decision_type": "<=", "default_left": true, "missing_type": "None", "internal_value": 0, "internal_weight": 0, "internal_count": 96, "left_child": {"split_index": 1, "split_feature": 3, "split_gain": 0.5160530209541321, "threshold": 1.6500000000000001, "decision_type": "<=", "default_left": true, "missing_type": "None", "internal_value": 0.108272, "internal_weight": 4.16868, "internal_count": 68, "left_child": {"split_index": 2, "split_feature": 3, "split_gain": 0.3384140133857727, "threshold": 1.0500000000000003, "decision_type": "<=", "default_left": true, "missing_type": "None", "internal_value": 0.229672, "internal_weight": 2.69266, "internal_count": 62, "left_child": {"leaf_index": 0, "leaf_value": -0.007996784679288658, "leaf_weight": 0.8772596865892414, "leaf_count": 36}, "right_child": {"leaf_index": 3, "leaf_value": 0.34452110032124433, "leaf_weight": 1.8153993319720028, "leaf_count": 26}}, "right_child": {"leaf_index": 2, "leaf_value": -0.11319498194850833, "leaf_weight": 1.476022347807884, "leaf_count": 6}}, "right_child": {"leaf_index": 1, "leaf_value": -0.15853635288745155, "leaf_weight": 1.761625403538346, "leaf_count": 28}}}, {"tree_index": 23, "num_leaves": 4, "num_cat": 0, "shrinkage": 0.466033, "tree_structure": {"split_index": 0, "split_feature": 2, "split_gain": 0.93989497423172, "threshold": 5.050000000000001, "decision_type": "<=", "default_left": true, "missing_type": "None", "internal_value": 0, "internal_weight": 0, "internal_count": 96, "left_child": {"split_index": 1, "split_feature": 1, "split_gain": 0.536978006362915, "threshold": 2.85, "decision_type": "<=", "default_left": true, "missing_type": "None", "internal_value": -0.11898, "internal_weight": 4.04404, "internal_count": 70, "left_child": {"leaf_index": 0, "leaf_value": 0.03675073751838784, "leaf_weight": 2.196702938526869, "leaf_count": 20}, "right_child": {"split_index": 2, "split_feature": 0, "split_gain": 0.05794220045208931, "threshold": 6.050000000000001, "decision_type": "<=", "default_left": true, "missing_type": "None", "internal_value": -0.304162, "internal_weight": 1.84733, "internal_count": 50, "left_child": {"leaf_index": 2, "leaf_value": -0.23088476521369297, "leaf_weight": 1.0330423479899762, "leaf_count": 40}, "right_child": {"leaf_index": 3, "leaf_value": -0.39712568388464303, "leaf_weight": 0.8142897319048642, "leaf_count": 10}}}, "right_child": {"leaf_index": 1, "leaf_value": 0.3377888244990045, "leaf_weight": 1.290669562295079, "leaf_count": 26}}}, {"tree_index": 24, "num_leaves": 4, "num_cat": 0, "shrinkage": 0.461372, "tree_structure": {"split_index": 0, "split_feature": 2, "split_gain": 0.4479439854621887, "threshold": 2.4500000000000006, "decision_type": "<=", "default_left": true, "missing_type": "None", "internal_value": 0, "internal_weight": 0, "internal_count": 96, "left_child": {"leaf_index": 0, "leaf_value": 0.31095466428774393, "leaf_weight": 0.41272396594285965, "leaf_count": 32}, "right_child": {"split_index": 1, "split_feature": 0, "split_gain": 6.867810043331701e-06, "threshold": 5.450000000000001, "decision_type": "<=", "default_left": true, "missing_type": "None", "internal_value": -0.31121, "internal_weight": 0.610995, "internal_count": 64, "left_child": {"leaf_index": 1, "leaf_value": -0.31374910703636927, "leaf_weight": 0.16537559777498245, "leaf_count": 6}, "right_child": {"split_index": 2, "split_feature": 0, "split_gain": 1.8973699980051606e-06, "threshold": 6.050000000000001, "decision_type": "<=", "default_left": true, "missing_type": "None", "internal_value": -0.310268, "internal_weight": 0.44562, "internal_count": 58, "left_child": {"leaf_index": 2, "leaf_value": -0.3112213857799482, "leaf_weight": 0.22240731678903103, "leaf_count": 19}, "right_child": {"leaf_index": 3, "leaf_value": -0.30931734364393076, "leaf_weight": 0.22321233386173844, "leaf_count": 39}}}}}, {"tree_index": 25, "num_leaves": 4, "num_cat": 0, "shrinkage": 0.461372, "tree_structure": {"split_index": 0, "split_feature": 0, "split_gain": 0.36412400007247925, "threshold": 6.3500000000000005, "decision_type": "<=", "default_left": true, "missing_type": "None", "internal_value": 0, "internal_weight": 0, "internal_count": 96, "left_child": {"split_index": 1, "split_feature": 0, "split_gain": 0.7014999985694885, "threshold": 5.950000000000001, "decision_type": "<=", "default_left": true, "missing_type": "None", "internal_value": -0.0429747, "internal_weight": 3.86508, "internal_count": 68, "left_child": {"split_index": 2, "split_feature": 0, "split_gain": 0.22358299791812897, "threshold": 5.450000000000001, "decision_type": "<=", "default_left": true, "missing_type": "None", "internal_value": 0.162457, "internal_weight": 1.84724, "internal_count": 52, "left_child": {"leaf_index": 0, "leaf_value": 0.01218563079159605, "leaf_weight": 0.9844280872493985, "leaf_count": 35}, "right_child": {"leaf_index": 3, "leaf_value": 0.33390855262603325, "leaf_weight": 0.8628159696236253, "leaf_count": 17}}, "right_child": {"leaf_index": 2, "leaf_value": -0.23103841141441603, "leaf_weight": 2.017838530242443, "leaf_count": 16}}, "right_child": {"leaf_index": 1, "leaf_value": 0.27376107435644625, "leaf_weight": 0.9656285615637897, "leaf_count": 28}}}, {"tree_index": 26, "num_leaves": 4, "num_cat": 0, "shrinkage": 0.461372, "tree_structure": {"split_index": 0, "split_feature": 0, "split_gain": 0.4898560047149658, "threshold": 5.950000000000001, "decision_type": "<=", "default_left": true, "missing_type": "None", "internal_value": 0, "internal_weight": 0, "internal_count": 96, "left_child": {"split_index": 2, "split_feature": 1, "split_gain": 0.21805299818515778, "threshold": 2.85, "decision_type": "<=", "default_left": true, "missing_type": "None", "internal_value": -0.234048, "internal_weight": 1.39828, "internal_count": 52, "left_child": {"leaf_index": 0, "leaf_value": -0.08302351661480777, "leaf_weight": 0.8288028957322238, "leaf_count": 14}, "right_child": {"leaf_index": 3, "leaf_value": -0.45384610442350076, "leaf_weight": 0.5694745881482959, "leaf_count": 38}}, "right_child": {"split_index": 1, "split_feature": 0, "split_gain": 0.9263399839401245, "threshold": 6.250000000000001, "decision_type": "<=", "default_left": true, "missing_type": "None", "internal_value": 0.0962021, "internal_weight": 3.02304, "internal_count": 44, "left_child": {"leaf_index": 1, "leaf_value": 0.33535178530692206, "leaf_weight": 1.6107244356535377, "leaf_count": 13}, "right_child": {"leaf_index": 2, "leaf_value": -0.17654507267822056, "leaf_weight": 1.4123123786412177, "leaf_count": 31}}}}, {"tree_index": 27, "num_leaves": 4, "num_cat": 0, "shrinkage": 0.456759, "tree_structure": {"split_index": 0, "split_feature": 2, "split_gain": 0.3290559947490692, "threshold": 2.4500000000000006, "decision_type": "<=", "default_left": true, "missing_type": "None", "internal_value": 0, "internal_weight": 0, "internal_count": 96, "left_child": {"leaf_index": 0, "leaf_value": 0.3073926878146443, "leaf_weight": 0.3100016703829169, "leaf_count": 32}, "right_child": {"split_index": 1, "split_feature": 0, "split_gain": 2.920090082625393e-06, "threshold": 5.450000000000001, "decision_type": "<=", "default_left": true, "missing_type": "None", "internal_value": -0.307093, "internal_weight": 0.439671, "internal_count": 64, "left_child": {"leaf_index": 1, "leaf_value": -0.3089839085620057, "leaf_weight": 0.1227954849600792, "leaf_count": 6}, "right_child": {"split_index": 2, "split_feature": 0, "split_gain": 7.119019755918998e-07, "threshold": 6.050000000000001, "decision_type": "<=", "default_left": true, "missing_type": "None", "internal_value": -0.30636, "internal_weight": 0.316875, "internal_count": 58, "left_child": {"leaf_index": 2, "leaf_value": -0.3070890181804556, "leaf_weight": 0.14854234247468412, "leaf_count": 19}, "right_child": {"leaf_index": 3, "leaf_value": -0.30571709009344145, "leaf_weight": 0.1683329917723313, "leaf_count": 39}}}}}, {"tree_index": 28, "num_leaves": 4, "num_cat": 0, "shrinkage": 0.456759, "tree_structure": {"split_index": 0, "split_feature": 2, "split_gain": 0.20164500176906586, "threshold": 4.8500000000000005, "decision_type": "<=", "default_left": true, "missing_type": "None", "internal_value": 0, "internal_weight": 0, "internal_count": 96, "left_child": {"split_index": 1, "split_feature": 3, "split_gain": 0.1829179972410202, "threshold": 1.6500000000000001, "decision_type": "<=", "default_left": true, "missing_type": "None", "internal_value": 0.104728, "internal_weight": 2.35722, "internal_count": 64, "left_child": {"split_index": 2, "split_feature": 2, "split_gain": 0.17487800121307373, "threshold": 3.4000000000000004, "decision_type": "<=", "default_left": true, "missing_type": "None", "internal_value": 0.204361, "internal_weight": 1.46124, "internal_count": 60, "left_child": {"leaf_index": 0, "leaf_value": -0.011794502230852025, "leaf_weight": 0.5089101893827321, "leaf_count": 34}, "right_child": {"leaf_index": 3, "leaf_value": 0.3198711041460166, "leaf_weight": 0.9523309064097703, "leaf_count": 26}}, "right_child": {"leaf_index": 2, "leaf_value": -0.0577614706154225, "leaf_weight": 0.8959819376468657, "leaf_count": 4}}, "right_child": {"leaf_index": 1, "leaf_value": -0.08649480232244772, "leaf_weight": 2.2473458843305707, "leaf_count": 32}}}, {"tree_index": 29, "num_leaves": 6, "num_cat": 0, "shrinkage": 0.456759, "tree_structure": {"split_index": 0, "split_feature": 2, "split_gain": 0.6453279852867126, "threshold": 5.050000000000001, "decision_type": "<=", "default_left": true, "missing_type": "None", "internal_value": 0, "internal_weight": 0, "internal_count": 96, "left_child": {"split_index": 1, "split_feature": 0, "split_gain": 0.25447800755500793, "threshold": 6.150000000000001, "decision_type": "<=", "default_left": true, "missing_type": "None", "internal_value": -0.101526, "internal_weight": 3.27061, "internal_count": 70, "left_child": {"split_index": 2, "split_feature": 3, "split_gain": 0.5344089865684509, "threshold": 1.4500000000000002, "decision_type": "<=", "default_left": true, "missing_type": "None", "internal_value": -0.0152761, "internal_weight": 2.2428, "internal_count": 58, "left_child": {"split_index": 3, "split_feature": 1, "split_gain": 0.00012889900244772434, "threshold": 2.35, "decision_type": "<=", "default_left": true, "missing_type": "None", "internal_value": -0.321599, "internal_weight": 0.776711, "internal_count": 49, "left_child": {"leaf_index": 0, "leaf_value": -0.3283787824835273, "leaf_weight": 0.3336705686524518, "leaf_count": 5}, "right_child": {"split_index": 4, "split_feature": 0, "split_gain": 1.2088199582649395e-05, "threshold": 5.650000000000001, "decision_type": "<=", "default_left": true, "missing_type": "None", "internal_value": -0.316492, "internal_weight": 0.44304, "internal_count": 44, "left_child": {"leaf_index": 4, "leaf_value": -0.3142099201816659, "leaf_weight": 0.23135684698354453, "leaf_count": 35}, "right_child": {"leaf_index": 5, "leaf_value": -0.3189863721831258, "leaf_weight": 0.2116833715699613, "leaf_count": 9}}}, "right_child": {"leaf_index": 3, "leaf_value": 0.14700877275752774, "leaf_weight": 1.4660877599380908, "leaf_count": 9}}, "right_child": {"leaf_index": 2, "leaf_value": -0.2897330394952361, "leaf_weight": 1.0278157149441538, "leaf_count": 12}}, "right_child": {"leaf_index": 1, "leaf_value": 0.31619325902992407, "leaf_weight": 1.0098166768439112, "leaf_count": 26}}}], "feature_importances": {"Column_0": 26, "Column_1": 9, "Column_2": 36, "Column_3": 10}, "pandas_categorical": null}